tree
version=v2
num_class=1
num_tree_per_iteration=1
label_index=0
max_feature_idx=31
objective=regression
feature_names=len_q1 len_q2 diff_len len_char_q1 len_char_q2 len_word_q1 len_word_q2 common_words fuzz_qratio fuzz_WRatio fuzz_partial_ratio fuzz_partial_token_set_ratio fuzz_partial_token_sort_ratio fuzz_token_set_ratio fuzz_token_sort_ratio wmd norm_wmd cosine_distance cityblock_distance jaccard_distance canberra_distance euclidean_distance minkowski_distance braycurtis_distance skew_q1vec skew_q2vec kur_q1vec kur_q2vec len_q_ratio_ln len_char_q_ratio_ln len_word_q_ratio_ln common_ratio
feature_infos=[2:413] [9:1169] [-1020:312] [2:47] [7:55] [1:77] [2:237] [0:38] [6:100] [20:100] [14:100] [17:100] [20:100] [6:100] [6:100] [0:6.1879162948293187] [0:1.4490439080466029] [0:1.063936748316709] [0:19.941870195943924] [0:1] [0:224.94263710251843] [0:1.4587232370860332] [0:0.66320741693202068] [0:1.0599629252874292] [-0.53018404748529147:0.57353633957103234] [-0.62470225136061597:0.53487261302835354] [-0.82934078101302189:2.2889841168246381] [-0.79148574061572807:2.1883279382777321] [-2.8332133440562166:2.5514811404106701] [-2.19722457733622:1.3499267169490159] [-2.7080502011022096:2.5649493574615367] [0:1]
tree_sizes=2495 2571 2556 2557 2562 2564 2546 2582 2589 2573 2572 2569 2573 2568 2581 2581 2584 2581 2586 2571

Tree=0
num_leaves=31
num_cat=0
split_feature=31 15 17 7 31 31 13 31 15 10 10 20 16 31 12 3 31 24 31 18 31 16 3 16 18 22 22 16 13 31
split_gain=1112.82 123.446 95.756 34.9169 32.765 27.2832 29.7075 27.2048 17.5402 16.3609 15.1856 11.3037 23.0912 8.60056 8.32734 10.4347 8.1623 9.44559 8.09292 8.49291 6.65103 6.4336 6.29096 5.84505 6.43048 5.75448 5.658 5.53301 6.3171 12.9848
threshold=0.31311274509803927 2.2585782950399396 0.33142913057693529 10.500000000000002 0.41101055806938164 0.81165540540540559 98.500000000000014 0.43826219512195125 2.27913839962542 54.500000000000007 55.500000000000007 114.3098533735136 0.30778049868334262 0.83935483870967753 85.500000000000014 21.500000000000004 0.85994397759103658 -0.12284257355360274 0.22086720867208673 10.732209926958605 0.20761494252873566 0.69854131340980541 20.500000000000004 0.1921836595014674 2.5960379416542314 0.16693697181787168 0.43617194234838991 0.24923387003394637 94.500000000000014 0.71611721611721635
decision_type=2 2 2 2 2 2 2 2 2 2 2 2 2 2 2 2 2 2 2 2 2 2 2 2 2 2 2 2 2 2
left_child=1 10 3 4 8 23 16 26 -2 -3 21 14 13 -13 27 25 17 -7 -11 -20 -12 -1 -14 24 -5 -16 -4 28 29 -6
right_child=2 9 7 5 11 6 -8 -9 -10 18 20 12 22 -15 15 -17 -18 -19 19 -21 -22 -23 -24 -25 -26 -27 -28 -29 -30 -31
leaf_value=0.37638456237951895 0.38403080808159124 0.35864667165424596 0.37093278707480248 0.3934713971134125 0.38749849070947162 0.39201637065838602 0.38981593492853855 0.38042147126071846 0.37494057393142655 0.36052738166939707 0.36990988917690454 0.37946763771491626 0.38587069025771548 0.36377562991764528 0.39493559931806677 0.38246528260535245 0.36157182529558457 0.36739996854198392 0.37296908147393976 0.36296775441464785 0.38169778936522847 0.3665985748137609 0.3894784228745366 0.39232742389912678 0.37041533924722803 0.38818670567120317 0.36306014170215706 0.38891266695468235 0.39209777073978613 0.37216759174847175
leaf_count=255 1688 5958 740 49 348 54 170 867 774 740 144 456 3557 108 1283 257 367 140 401 451 708 492 1830 256 79 419 330 2250 182 229
internal_value=0 -0.281275 0.153871 0.181774 0.195942 0.0117544 -0.101621 -0.054955 0.091732 -0.334732 -0.0288691 0.219439 0.190041 -0.00247296 0.254653 0.305394 -0.212594 -0.0466895 -0.244677 -0.17823 0.0623807 -0.132945 0.210197 0.22758 0.0531011 0.333754 -0.161633 0.221619 0.147788 0.0965505
internal_count=25582 9149 16433 14496 13381 1115 731 1937 2462 7550 1599 10919 5951 564 4968 1959 561 194 1592 852 852 747 5387 384 128 1702 1070 3009 759 577
shrinkage=1


Tree=1
num_leaves=31
num_cat=0
split_feature=31 15 23 7 31 31 31 13 14 10 15 10 31 1 15 13 22 31 24 10 15 15 22 12 10 31 31 31 16 31
split_gain=1004.32 111.41 86.5549 31.4699 27.932 27.1044 25.0414 26.811 18.5497 14.7657 14.3946 13.705 12.1537 13.348 7.67066 7.54317 7.48212 7.36647 8.52465 6.47823 6.42973 6.90598 12.7716 9.0751 6.55447 6.4555 6.18042 6.00256 5.80632 5.77511
threshold=0.31311274509803927 2.2585782950399396 0.44037483629418778 10.500000000000002 0.41101055806938164 0.47213622291021679 0.81165540540540559 98.500000000000014 92.500000000000014 54.500000000000007 2.27913839962542 55.500000000000007 0.86729559748427687 39.500000000000007 2.7081153205973547 95.500000000000014 0.4525121322131071 0.85994397759103658 -0.12284257355360274 98.500000000000014 2.696386140849039 0.56185532655978998 0.21059219653635983 80.500000000000014 88.500000000000014 0.71198156682027658 0.69666329625884738 0.20761494252873566 0.69854131340980541 0.20761494252873566
decision_type=2 2 2 2 2 2 2 2 2 2 2 2 2 2 2 2 2 2 2 2 2 2 2 2 2 2 2 2 2 2
left_child=1 11 3 4 10 16 -5 17 12 -3 -2 28 19 -14 29 -15 -4 18 -8 20 21 22 23 25 -23 -6 -24 -13 -1 -11
right_child=2 9 5 6 8 -7 7 -9 -10 14 -12 27 13 15 -16 -17 -18 -19 -20 -21 -22 24 26 -25 -26 -27 -28 -29 -30 -31
leaf_value=-0.00019177683428222059 0.0070786330833251549 -0.017042772823550153 -0.0045683719635566822 0.010969361662864685 0.0094251741894653875 0.0057709319213413461 0.014658441228999031 0.012568027201820823 0.017815478573444534 -0.014919025177336009 -0.0012576618212017609 -0.0063427163494957821 0.015597309582815397 -0.0095086071473449024 -0.014397714465825859 0.0061337727785110473 -0.013775260800080333 -0.014263877146737778 -0.0087271411823374896 0.02765901367057045 0.0033874749350757544 0.011408793841310116 0.0056361482096707223 0.013830541653373231 0.0063290057920315007 -0.0043198570816053291 -0.0065641174738730618 0.0048557884928028469 -0.0094884651372345499 -0.0042378798060052026
leaf_count=255 1663 5958 1070 382 210 681 54 170 788 177 752 144 127 201 971 125 278 367 140 53 341 7141 217 633 697 144 199 708 492 444
internal_value=0 -0.267212 0.146177 0.173416 0.186942 -0.0471925 0.0118917 -0.0965396 0.208544 -0.317996 0.0896564 -0.0274257 0.197002 0.0369249 -0.232443 -0.0702152 -0.129342 -0.201964 -0.044355 0.204528 0.202599 0.207575 0.142961 0.204903 0.219141 0.0766795 -0.00400073 0.0592617 -0.126298 -0.145645
internal_count=25582 9149 16433 14404 13291 2029 1113 731 10876 7550 2415 1599 10088 453 1592 326 1348 561 194 9635 9582 9241 1403 987 7838 354 416 852 747 621
shrinkage=0.05


Tree=2
num_leaves=31
num_cat=0
split_feature=31 15 17 7 31 13 31 31 10 14 15 10 31 1 15 13 31 31 22 22 10 5 16 18 15 20 12 31 10 15
split_gain=907.071 115.391 67.9757 29.2227 22.608 24.4773 21.8281 21.1179 17.7854 16.4708 13.3033 11.9958 11.081 12.0466 8.32848 6.80771 6.48257 6.11539 5.96291 5.94097 5.81647 5.66571 5.49781 5.80351 5.22962 11.248 7.05776 5.49045 5.44563 5.93558
threshold=0.32071428571428579 2.3306091552072039 0.32620405077094988 10.500000000000002 0.81165540540540559 99.500000000000014 0.47213622291021679 0.41763565891472876 55.500000000000007 92.500000000000014 2.27913839962542 60.500000000000007 0.86729559748427687 39.500000000000007 1.9058324576710846 95.500000000000014 0.20761494252873566 0.85994397759103658 0.3239080558821909 0.4525121322131071 98.500000000000014 10.500000000000002 0.1921836595014674 2.5960379416542314 0.56185532655978998 117.4530772435409 79.500000000000014 0.71198156682027658 93.500000000000014 2.696386140849039
decision_type=2 2 2 2 2 2 2 2 2 2 2 2 2 2 2 2 2 2 2 2 2 2 2 2 2 2 2 2 2 2
left_child=1 8 3 7 22 17 19 10 14 12 -2 -3 20 -14 -1 -15 -10 -6 -13 -4 24 -11 23 -5 25 26 27 -9 29 -26
right_child=2 11 6 4 5 -7 -8 9 16 21 -12 18 13 15 -16 -17 -18 -19 -20 -21 -22 -23 -24 -25 28 -27 -28 -29 -30 -31
leaf_value=-9.0303755479172852e-05 0.0071788344189042804 -0.015838303703933992 -0.0039529440454547857 0.015492247683661326 -0.0018538678055856289 0.01499530510365508 0.0054446210041423707 0.0087225878435485769 -0.0065260645747184758 0.018636070551695649 -0.0010308903987617062 -0.0027021794239195382 0.014817444663348162 -0.0090331767477206323 -0.010005933517028415 0.0058270846605300904 0.0043953525652896024 -0.012497312400159957 -0.012353462790948335 -0.012596190375089645 0.026276063694144199 0.0064931401184626994 0.014681762726757469 -0.0064110075559797169 0.010718155055046729 -0.00094660385244194122 0.012327448783176286 -0.0040363113049949918 0.003906789448803771 0.0037831227231469957
leaf_count=319 1639 6779 971 49 205 131 682 212 160 675 706 246 127 201 630 125 901 395 458 250 53 112 254 79 7379 348 700 140 334 322
internal_value=0 -0.246723 0.143059 0.166866 0.0113158 -0.0917126 -0.0344101 0.180109 -0.0339951 0.1989 0.0941433 -0.303863 0.187875 0.0350787 -0.133457 -0.0667045 0.0549678 -0.177216 -0.17962 -0.114453 0.19517 0.33816 0.208472 0.0394766 0.193315 0.136913 0.188466 0.0729605 0.203142 0.208564
internal_count=25582 9493 16089 14186 1113 731 1903 13073 2010 10728 2345 7483 9941 453 949 326 1061 600 704 1221 9488 787 382 128 9435 1400 1052 352 8035 7701
shrinkage=0.05


Tree=3
num_leaves=31
num_cat=0
split_feature=31 15 17 7 31 31 31 13 14 15 8 10 31 9 22 31 22 14 23 15 25 5 31 16 10 15 17 31 12 10
split_gain=818.855 91 70.7517 25.7324 23.9752 21.4149 20.0324 22.1957 15.0053 12.8708 12.6888 11.1861 9.91286 10.8084 6.65598 6.04429 5.9457 5.62638 5.37212 5.34614 5.30602 5.1133 5.00947 4.88123 4.85599 5.52665 10.4212 10.5477 7.99178 5.52979
threshold=0.31311274509803927 2.2585782950399396 0.33142913057693529 10.500000000000002 0.41101055806938164 0.41101055806938164 0.81165540540540559 98.500000000000014 92.500000000000014 2.27913839962542 51.500000000000007 55.500000000000007 0.86729559748427687 92.500000000000014 0.33171071264180779 0.85994397759103658 0.18491798125340986 62.500000000000007 0.30440509983964453 2.696386140849039 -0.15573318720899734 10.500000000000002 0.17712418300653598 0.69854131340980541 98.500000000000014 0.56185532655978998 0.077710650583370025 0.69666329625884738 79.500000000000014 88.500000000000014
decision_type=2 2 2 2 2 2 2 2 2 2 2 2 2 2 2 2 2 2 2 2 2 2 2 2 2 2 2 2 2 2
left_child=1 11 3 4 9 -4 -5 15 12 18 -3 23 19 -14 -12 20 -15 -7 -2 24 -8 -10 -13 -1 25 26 28 -28 -6 -27
right_child=2 10 5 6 8 17 7 -9 21 -11 14 22 13 16 -16 -17 -18 -19 -20 -21 -22 -23 -24 -25 -26 29 27 -29 -30 -31
leaf_value=-8.0461402734120684e-05 0.0096963757301614141 -0.015241509817761742 -0.0081433006385351874 0.0097479015433539953 0.0026193343348555513 -0.0016384925480624837 0.015610387793609074 0.011470782160758973 0.017704267662984354 -0.0013889214731464092 -0.0042936602560094163 -0.0097439479183506327 -0.0065319422754883203 0.01487656120770897 -0.012254620692781451 -0.012925818209264845 -0.0014943034484468658 0.0056951326335597241 0.0039857719143231709 0.0031306850686238681 -0.0058937918090220523 0.0061684829582061085 0.0038698762904249306 -0.0086044367281644333 0.024846289964283216 0.010302952781996002 0.0077391824600371445 -0.0066358258125753054 0.0128887944416969 0.0056382841239529672
leaf_count=255 713 6369 879 384 273 473 35 170 675 774 394 74 213 153 787 367 87 585 975 346 159 112 778 492 51 7182 264 247 619 697
internal_value=0 -0.24128 0.131992 0.155978 0.16814 -0.0475097 0.0100216 -0.087127 0.18824 0.0789977 -0.287177 -0.0245677 0.177908 0.0333248 -0.191974 -0.183049 0.178842 0.0483298 0.127958 0.184675 -0.0402834 0.321252 0.0537491 -0.113893 0.1892 0.187509 0.129684 0.0158159 0.194916 0.197806
internal_count=25582 9149 16433 14496 13381 1937 1115 731 10919 2462 7550 1599 10132 453 1181 561 240 1058 1688 9679 194 787 852 747 9333 9282 1403 511 892 7879
shrinkage=0.05


Tree=4
num_leaves=31
num_cat=0
split_feature=31 15 17 7 31 13 31 20 10 16 31 31 15 14 17 0 17 10 31 15 8 31 3 29 13 22 18 31 24 6
split_gain=739.31 94.5244 55.3687 23.7991 18.4354 20.2512 18.2089 18.1047 14.8479 12.371 14.9182 10.454 8.84529 8.17569 10.179 8.86109 7.76962 7.73641 7.58039 6.49982 6.4076 6.27272 6.08049 6.00913 5.51513 5.27309 5.17479 4.99168 6.9545 5.94434
threshold=0.32071428571428579 2.3306091552072039 0.32620405077094988 10.500000000000002 0.81165540540540559 99.500000000000014 0.47213622291021679 114.3098533735136 53.500000000000007 0.32585933999585492 0.41763565891472876 0.2168037602820212 2.3220440699414477 80.500000000000014 0.03998382990010841 60.500000000000007 0.077710650583370025 63.500000000000007 0.83935483870967753 1.9256423625648478 76.500000000000014 0.20761494252873566 20.500000000000004 0.12649825723194552 90.500000000000014 0.4525121322131071 11.260157268321565 0.85994397759103658 -0.12775512312586876 14.500000000000002
decision_type=2 2 2 2 2 2 2 2 2 2 2 2 2 2 2 2 2 2 2 2 2 2 2 2 2 2 2 2 2 2
left_child=1 8 3 7 -5 27 25 13 19 18 12 -3 -11 14 -2 16 23 -13 -9 -1 -17 -10 -12 -15 -18 -4 -23 28 29 -6
right_child=2 11 6 4 5 -7 -8 9 21 10 22 17 -14 15 -16 20 24 -19 -20 -21 -22 26 -24 -25 -26 -27 -28 -29 -30 -31
leaf_value=-0.00062721558183217226 0.0019225941357498399 -0.014942881793823155 -0.0035387920900550119 0.0094150325117622995 0.026429140611606484 0.013672001079748607 0.0049935042311893534 0.0024942429919897671 -0.006387640890621004 0.0057441019605006683 0.0074120985767529212 -0.011979649550507024 -0.001527107520536943 0.015717780239390883 0.0098988039373991005 0.019118686923474976 0.01496786659386889 -0.0031339704885078403 -0.011738448470298734 -0.01009509612353887 0.0019262501213810233 0.0049803319093707499 0.011065513115566099 0.0053776847576004231 0.0046791338319803746 -0.011681722122430802 -0.0051871525404387957 -0.01131262451033049 -0.0073424631917236643 -0.0069261846894567661
leaf_count=278 501 5247 971 382 34 131 682 568 189 1355 3422 1953 605 1721 1984 66 199 283 112 521 303 876 1707 153 377 250 146 395 149 22
internal_value=0 -0.222741 0.129154 0.150641 0.0102655 -0.0827706 -0.0310145 0.162592 -0.0302063 0.131843 0.144202 -0.274458 0.0699935 0.207631 0.165814 0.244492 0.266251 -0.217202 0.0030007 -0.136018 0.100026 0.0396066 0.17256 0.297472 0.164675 -0.104121 0.0705567 -0.160543 -0.0339329 0.266505
internal_count=25582 9493 16089 14186 1113 731 1903 13073 2010 7769 7089 7483 1960 5304 2485 2819 2450 2236 680 799 369 1211 5129 1874 576 1221 1022 600 205 56
shrinkage=0.05


Tree=5
num_leaves=31
num_cat=0
split_feature=31 15 23 7 14 31 13 31 31 31 16 10 1 8 10 31 3 16 31 27 15 9 20 6 15 31 14 13 10 8
split_gain=669.299 86.7464 48.1248 25.1956 16.287 15.7826 15.7367 15.0926 14.4678 11.5224 12.4666 11.3228 10.8167 11.193 10.4584 10.0459 8.42789 5.92318 5.72373 5.5922 5.48573 5.32711 5.24625 5.18094 5.06926 4.91508 5.02885 4.79489 4.76398 6.48512
threshold=0.33060109289617495 2.3634001403833866 0.42365024722214134 12.500000000000002 93.500000000000014 0.44671201814058964 99.500000000000014 0.20761494252873566 0.81165540540540559 0.37123169681309226 0.23378695221152171 53.500000000000007 42.500000000000007 90.500000000000014 54.500000000000007 0.86729559748427687 21.500000000000004 0.85358408260650498 0.22086720867208673 0.0029373322557411101 2.2056069110166798 94.500000000000014 158.51486128151245 19.500000000000004 1.9256423625648478 0.82842724978973936 80.500000000000014 96.500000000000014 93.500000000000014 76.500000000000014
decision_type=2 2 2 2 2 2 2 2 2 2 2 2 2 2 2 2 2 2 2 2 2 2 2 2 2 2 2 2 2 2
left_child=1 7 3 4 9 20 8 -1 19 17 12 24 13 25 -3 27 -6 -2 -16 23 -4 -17 -20 -5 -9 26 -11 -14 -12 -30
right_child=2 14 5 6 16 -7 -8 11 -10 10 28 -13 15 -15 18 21 -18 -19 22 -21 -22 -23 -24 -25 -26 -27 -28 -29 29 -31
leaf_value=-0.0095340758875796672 0.004892411952384549 -0.014053035387331018 0.0012001863629871627 -0.014145692620012496 0.017792835275092758 0.0038905825705803708 0.015441370658852436 0.0010049079109159152 -0.010991870711638234 0.0033787415894471345 0.0088535283444284053 0.0037152106794166384 0.0018756295861424627 0.018381468184292316 -0.012730452474721829 -0.011562887252796264 0.0044276752786056419 -0.0031917117353231629 -0.0030577618845047489 0.016880365233454441 -0.0065263743930844866 0.0046294242366036378 -0.011181977198000258 0.0074241821896539988 -0.0083435807183074463 -0.0042853127560044972 0.011876130738266613 0.013670560717582703 0.014752481544905521 -0.00026861834232924414
leaf_count=475 743 5843 311 45 581 1056 108 233 381 438 8994 1054 555 200 687 210 148 326 465 72 879 67 347 73 384 117 289 102 94 305
internal_value=0 -0.210249 0.124607 0.146629 0.156314 -0.0111752 -0.0412206 -0.0333891 -0.107429 0.147801 0.157133 0.011323 0.0849782 0.154923 -0.261944 0.00679522 0.301589 0.0485419 -0.187429 0.117978 -0.0901416 -0.152927 -0.130591 -0.0160324 -0.0962655 0.104519 0.135133 0.0741361 0.172327 0.0654037
internal_count=25582 9488 16094 13848 13169 2246 679 2146 571 12440 11371 1671 1978 1044 7342 934 729 1069 1499 190 1190 277 812 118 617 844 727 657 9393 399
shrinkage=0.05


Tree=6
num_leaves=31
num_cat=0
split_feature=16 13 8 7 16 7 13 14 8 10 16 18 20 7 6 7 3 3 13 20 0 0 7 1 2 27 8 10 30 30
split_gain=551.425 81.0505 74.0962 21.0341 16.5954 16.1854 14.2252 13.9979 11.4313 10.4069 9.55125 11.9754 11.0401 9.2235 9.11164 7.7242 7.37324 7.35389 7.9554 7.11271 6.73455 5.68789 5.55782 5.07562 4.9771 4.79015 4.78517 4.62163 5.32115 5.88114
threshold=0.92379348025813601 66.500000000000014 57.500000000000007 12.500000000000002 0.69505004916185154 2.5000000000000004 99.500000000000014 93.500000000000014 49.500000000000007 55.500000000000007 0.23378695221152171 9.8538338266153023 95.801005640867373 2.5000000000000004 20.500000000000004 5.5000000000000009 21.500000000000004 21.500000000000004 91.500000000000014 163.79381192977942 38.500000000000007 65.500000000000014 1.5000000000000002 82.500000000000014 33.500000000000007 -0.23821853842898652 45.500000000000007 93.500000000000014 0.43857541176844239 -0.15724666495121883
decision_type=2 2 2 2 2 2 2 2 2 2 2 2 2 2 2 2 2 2 2 2 2 2 2 2 2 2 2 2 2 2
left_child=1 4 8 5 -1 -3 14 10 -2 -6 12 26 17 -4 -5 -14 -9 18 -7 24 22 -20 -10 -17 -11 -16 -12 -28 29 -29
right_child=2 3 13 6 9 7 -8 16 20 19 11 -13 15 -15 25 23 -18 -19 21 -21 -22 -23 -24 -25 -26 -27 27 28 -30 -31
leaf_value=0.0033090947792954644 -0.013312518698767595 4.9232523103326672e-05 -0.0062864868352131816 -0.0089804681376195877 -0.008466375591530689 0.0031320182062112368 0.014669302506027399 0.01670291363477298 -0.010729189064258184 0.0030600278662089517 0.0012129161122668485 0.0039901681033124581 0.0047253302896821973 0.0035784762639265791 -0.008153660880758409 -0.0067814884142469349 0.0042062914854771385 -0.0018503393584759391 0.013586535884570565 -0.012861936941742896 -0.0097472906978566653 -0.0064044872004734845 0.0060129999237902021 0.01334336816388018 -0.013945412413871034 0.010942432051951733 0.0088884466855911788 0.0099667949202869623 0.017709298045546922 -0.0042565585334519837
leaf_count=730 5866 783 322 416 1159 390 108 583 78 509 223 1834 358 897 47 399 148 199 559 100 1153 38 136 34 47 109 7984 112 54 207
internal_value=0 0.103521 -0.208621 0.132254 -0.0611471 0.140652 -0.0394731 0.148986 -0.247059 -0.112359 0.141053 0.15315 0.0773323 0.0194527 -0.102321 -0.0141712 0.283456 0.13836 0.173718 -0.0117096 -0.164707 0.246282 -0.00178587 -0.104025 0.0324504 0.103782 0.168828 0.172686 0.0638861 0.0147444
internal_count=25582 17130 8452 14585 2545 13905 680 13122 7233 1815 12391 10414 1977 1219 572 791 731 1186 987 656 1367 597 214 433 556 156 8580 8357 373 319
shrinkage=0.05


Tree=7
num_leaves=31
num_cat=0
split_feature=31 15 20 7 31 14 31 13 31 3 31 13 10 22 3 26 31 10 31 17 16 13 3 16 8 15 1 29 29 2
split_gain=550.482 60.5235 48.7276 22.8642 21.2165 14.5501 16.4256 14.3081 15.4455 11.1552 10.7376 8.29638 8.18017 7.79891 7.73363 7.32016 7.07104 4.78174 4.71232 5.71121 4.44161 4.42701 5.10786 4.32077 4.16141 4.13687 4.39131 3.77421 4.00868 3.6441
threshold=0.31311274509803927 2.3306091552072039 145.20459872736816 10.500000000000002 0.39696969696969703 89.500000000000014 0.82842724978973936 99.500000000000014 0.85994397759103658 21.500000000000004 0.20761494252873566 95.500000000000014 54.500000000000007 0.39190268837927961 18.500000000000004 0.016643853239525889 0.37123169681309226 53.500000000000007 0.22086720867208673 0.28451422187889941 0.29660572188240325 69.500000000000014 20.500000000000004 0.86986981392140772 81.500000000000014 2.7686975733441441 32.500000000000007 0.096875126308788737 -0.13584086555266989 15.500000000000002
decision_type=2 2 2 2 2 2 2 2 2 2 2 2 2 2 2 2 2 2 2 2 2 2 2 2 2 2 2 2 2 2
left_child=1 10 3 5 13 6 16 8 15 27 -1 20 -3 -4 29 24 23 -16 -14 -20 -8 -6 -23 -2 -5 26 -18 28 -7 -12
right_child=2 12 4 7 21 9 11 -9 -10 -11 14 -13 18 -15 17 -17 25 -19 19 -21 -22 22 -24 -25 -26 -27 -28 -29 -30 -31
leaf_value=-0.0085688952981740583 0.0052069570475323191 -0.012782623112912129 -0.001740282725542784 0.0084022050044115851 -0.00040070918004332223 0.0025247000671666246 -0.0090058352104157996 0.01340621349197873 -0.009795393142385863 0.00091650267442067472 0.0044453266503769245 0.0072992027997970587 -0.011537425213608156 -0.0097708149395361859 -0.0064387914757740687 0.011095235090722484 0.005247794683784222 0.0009397286110587659 -0.00057329701539737723 -0.0094512439760807403 0.0018937086031354706 0.0023754707167188364 0.0078670420482179881 -0.0026797097159608064 -0.0043724860455475597 0.00064570984846569718 0.0085065979837040968 0.0059901141118807871 0.016057650554032365 0.023026439920067789
leaf_count=435 785 5789 800 85 647 58 263 169 402 180 458 200 698 486 394 189 1203 496 306 444 145 1139 674 223 255 193 7348 122 968 28
internal_value=0 -0.197925 0.108888 0.13827 0.00858487 0.151242 0.13861 0.000438272 -0.0481535 0.249789 -0.034429 -0.0208588 -0.238838 -0.095503 0.00886514 0.0641287 0.148552 -0.0465343 -0.171615 -0.116581 -0.102644 0.0629983 0.0883403 0.0692438 -0.0235763 0.157695 0.160963 0.286081 0.305853 0.110317
internal_count=25582 9048 16534 12788 3746 11688 10360 1100 931 1328 1811 608 7237 1286 1376 529 9752 890 1448 750 408 2460 1813 1008 340 8744 8551 1148 1026 486
shrinkage=0.05


Tree=8
num_leaves=31
num_cat=0
split_feature=31 15 20 7 31 13 31 31 12 3 26 10 15 18 3 31 13 31 28 29 20 10 31 12 31 22 22 31 26 5
split_gain=496.81 54.6225 43.9767 20.6349 19.1479 13.0416 14.4638 9.69066 8.34029 8.63885 7.40465 7.38261 7.26779 7.04111 6.9796 6.61293 5.81631 9.71532 5.54317 5.11916 4.32667 4.31553 4.2728 4.09729 4.50279 4.05454 4.02686 3.92815 3.84631 3.73828
threshold=0.31311274509803927 2.3306091552072039 145.20459872736816 10.500000000000002 0.39696969696969703 98.500000000000014 0.85994397759103658 0.20761494252873566 90.500000000000014 21.500000000000004 0.016643853239525889 54.500000000000007 0.56185532655978998 12.233530967441768 18.500000000000004 0.37123169681309226 99.500000000000014 0.82842724978973936 0.13413199329733963 -0.11227716020861374 146.20483793787642 53.500000000000007 0.22086720867208673 81.500000000000014 0.71198156682027658 0.25719370070059672 0.44415043451774744 0.64075471698113218 -0.23253819001663054 4.5000000000000009
decision_type=2 2 2 2 2 2 2 2 2 2 2 2 2 2 2 2 2 2 2 2 2 2 2 2 2 2 2 2 2 2
left_child=1 7 3 8 13 6 10 -1 12 18 27 -3 16 -4 -9 25 17 23 19 -10 22 -16 -13 24 -2 -14 -6 -5 -27 -17
right_child=2 11 4 5 26 -7 -8 14 9 -11 -12 20 15 -15 21 29 -18 -19 -20 -21 -22 -23 -24 -25 -26 28 -28 -29 -30 -31
leaf_value=-0.008140450626954265 0.0048544821358218644 -0.012143491757597654 -0.0018728440792388874 0.0087561822363308502 0.0036758366000393169 0.011098500369029625 -0.010112261549631754 0.0052400511356047643 0.0043287275110681853 0.00033413285088396361 0.01077388767753878 -0.0098362673191647789 0.0074604963184654559 -0.0096754013881053362 -0.0061168518881809901 -0.00037142096885613038 0.011466173575474666 -0.0060832709450584031 0.0042716757324389645 0.015365595928441859 -0.010001791893595536 0.00089274223353112908 -1.1277884807226794e-05 0.0083500042484671473 -0.0046250349927592924 0.0072208930474485277 -0.002995626391872527 -0.0046155186494191485 -0.0015705035246790936 0.0078720035923805966
leaf_count=435 388 5789 847 70 2208 214 375 486 120 167 186 190 381 439 394 140 195 277 173 844 993 496 265 408 185 173 252 255 443 7794
internal_value=0 -0.188028 0.103444 0.131357 0.00815563 0.000416356 -0.0530966 -0.0327076 0.14368 0.219062 0.0563569 -0.226896 0.134214 -0.0907278 0.00842188 0.144885 0.0686242 0.0437145 0.250255 0.279834 -0.163034 -0.0442076 -0.0822804 0.090412 0.0358781 0.068123 0.0598484 -0.0347092 0.0179702 0.154531
internal_count=25582 9048 16534 12788 3746 1100 886 1811 11688 1304 511 7237 10384 1286 1376 8931 1453 1258 1137 964 1448 890 455 981 573 997 2460 325 616 7934
shrinkage=0.05


Tree=9
num_leaves=31
num_cat=0
split_feature=31 16 20 7 31 31 13 14 31 31 9 3 22 13 3 31 8 26 31 0 31 3 0 16 22 13 31 31 0 24
split_gain=448.371 49.4218 39.689 18.6933 17.281 12.7938 10.8665 10.604 10.4106 8.92591 10.8404 6.76899 6.41465 5.91591 6.81778 5.34696 4.77936 4.44551 4.06757 4.71984 3.98012 5.88316 4.65781 3.86222 7.32919 6.22928 8.09534 6.20591 5.77388 5.41023
threshold=0.31311274509803927 0.93218306833344688 145.20459872736816 12.500000000000002 0.39696969696969703 0.2168037602820212 99.500000000000014 93.500000000000014 0.81165540540540559 0.88303693570451447 94.500000000000014 18.500000000000004 0.39190268837927961 98.500000000000014 19.500000000000004 0.37123169681309226 51.500000000000007 0.025469548776695387 0.26442841287458385 53.500000000000007 0.47722567287784684 18.500000000000004 37.500000000000007 0.23378695221152171 0.20399579840131887 88.500000000000014 0.69666329625884738 0.69666329625884738 57.500000000000007 -0.14539489112832099
decision_type=2 2 2 2 2 2 2 2 2 2 2 2 2 2 2 2 2 2 2 2 2 2 2 2 2 2 2 2 2 2
left_child=1 5 3 7 12 -1 8 9 17 15 -11 -7 -4 14 -9 -2 -13 -5 -3 -20 -6 22 -22 24 25 26 -17 -26 -27 -30
right_child=2 18 4 6 20 11 -8 13 -10 10 -12 16 -14 -15 -16 23 -18 -19 19 -21 21 -23 -24 -25 27 28 -28 -29 29 -31
leaf_value=-0.0081221592770454633 0.0031212676125081632 -0.011674669494876614 -0.001557188242673874 -0.00093156121859029562 0.00057687425360468478 0.0040205356235243047 0.012710601546698147 0.013913383954955685 -0.0093520001554739437 -0.009800938767864106 0.006807696552956162 -0.0054061972802238803 -0.0088402463422145375 0.01617009752341525 -0.0017466820776462556 0.0056403711052804163 0.0011749243475178369 0.014877453740213958 -0.0024912565396720634 -0.01071151924260765 0.0047119085003370018 0.0073567223056471009 -0.0044402364294538615 0.0073813401248118407 0.0056418048262031166 0.010960639624582342 -0.012170170281421054 -0.0060457049467699323 0.020042307765194865 -0.0020393321055105365
leaf_count=814 1012 5775 800 119 1084 557 108 155 381 187 207 672 486 442 126 232 468 71 271 491 318 811 247 8279 211 717 88 246 33 174
internal_value=0 -0.178627 0.0982718 0.124789 0.00774785 -0.0593795 -0.0366693 0.133843 -0.0916872 0.126386 -0.0215016 -0.00994298 -0.0861915 0.251277 0.137829 0.131687 -0.0540895 0.0995204 -0.224432 -0.155761 0.056856 0.0925574 0.0142176 0.13871 0.0953098 0.135095 0.0148494 -0.01299 0.176739 0.0296186
internal_count=25582 9048 16534 12788 3746 2511 679 12109 571 11386 394 1697 1286 723 281 10992 1140 190 6537 762 2460 1376 565 9980 1701 1244 320 457 924 207
shrinkage=0.05


Tree=10
num_leaves=31
num_cat=0
split_feature=31 17 16 31 7 31 31 13 14 31 31 3 0 1 28 15 18 13 16 6 28 24 13 3 3 18 2 24 7 27
split_gain=412.13 45.6657 35.6705 18.8615 15.3232 11.8011 11.1228 13.0739 9.90705 12.2132 8.52849 7.60944 7.30225 6.73596 6.09339 6.07972 5.69154 5.55729 5.3825 4.48235 5.60267 4.25509 4.16321 3.77467 3.70527 3.58237 3.54572 3.47955 5.11001 3.29891
threshold=0.29679679679679688 0.26497764743717084 0.928056905681928 0.39696969696969703 10.500000000000002 0.2168037602820212 0.81165540540540559 98.500000000000014 90.500000000000014 0.82842724978973936 0.37123169681309226 21.500000000000004 50.500000000000007 42.500000000000007 -0.26210255286769224 3.5826115298263832 12.454502510612661 89.500000000000014 1.0941964400272639 17.500000000000004 -0.70589448134290023 -0.085341317334277786 61.500000000000007 21.500000000000004 24.500000000000004 11.694777088741832 5.5000000000000009 -0.15712924845254009 12.500000000000002 -0.24344144670220808
decision_type=2 2 2 2 2 2 2 2 2 2 2 2 2 2 2 2 2 2 2 2 2 2 2 2 2 2 2 2 2 2
left_child=2 4 5 18 8 -1 21 27 9 10 -2 26 23 17 -15 -12 24 -11 19 20 -3 -6 -14 25 -5 -7 -10 28 -8 -23
right_child=1 3 -4 16 6 12 7 -9 11 13 15 -13 22 14 -16 -17 -18 -19 -20 -21 -22 29 -24 -25 -26 -27 -28 -29 -30 -31
leaf_value=-0.0080538355219777272 0.0027664503794899925 0.019709987789392473 -0.010799534014236091 0.0032039583066688013 -0.0029956928708336572 0.0068001266179436989 0.015452985694775215 0.0089251993771861573 0.013372385842085673 -0.010591656304135616 0.0070531334232541015 0.00063849803368756731 -0.0079997489373985816 0.02004083142332409 -0.0065109260568097863 -0.015877308465283495 -0.0017736035647816684 0.0076905940897273317 -0.010421126192400916 -0.0093056024144135829 -0.0022583900101056406 -0.00018553373714288077 -0.00048853134493465013 -0.012039703284116354 0.01091992339130082 -0.0056918763978914787 0.0023935819230973721 -0.0082868775956436366 -0.01316365467814299 0.012997259921701997
leaf_count=808 1386 30 6345 1546 77 440 39 170 911 49 8985 157 308 23 357 29 573 274 322 233 891 60 460 34 173 66 80 503 26 227
internal_value=0 0.0912849 -0.178495 -0.00593706 0.118719 -0.0660596 0.00577084 -0.064786 0.128879 0.119735 0.128358 0.217317 -0.00736399 -0.00783015 -0.0980769 0.139587 0.0508394 0.0983425 -0.0941021 -0.0622033 -0.0308562 0.148823 -0.0700169 0.0817423 0.0796098 0.103415 0.249722 -0.137602 0.0801266 0.204826
internal_count=25582 17121 8461 3768 13353 2116 1102 738 12251 11103 10400 1148 1308 703 380 9014 2292 323 1476 1154 921 364 768 540 1719 506 991 568 65 287
shrinkage=0.05


Tree=11
num_leaves=31
num_cat=0
split_feature=31 17 16 31 7 31 14 31 31 8 1 15 31 28 0 9 18 22 0 30 10 7 10 16 17 4 26 29 7 17
split_gain=372.323 50.5635 23.5463 19.9981 13.3902 10.1085 9.22648 10.7471 8.86904 6.26826 6.11977 5.76302 5.73763 5.51016 5.22241 5.16486 5.06734 5.0571 5.84516 4.59431 4.07131 3.95342 3.89388 3.856 3.85388 4.79101 3.76082 3.48856 3.48843 4.80051
threshold=0.28035087719298252 0.26862849108402581 0.85656655036082996 0.39696969696969703 10.500000000000002 0.83935483870967753 90.500000000000014 0.82842724978973936 0.37123169681309226 98.500000000000014 42.500000000000007 3.5826115298263832 0.18808962264150947 -0.26210255286769224 47.500000000000007 87.500000000000014 12.454502510612661 0.39190268837927961 39.500000000000007 -0.072783468067933399 98.500000000000014 2.5000000000000004 69.500000000000014 0.93218306833344688 0.076019954224860534 23.500000000000004 0.27941959634942953 0.043505688494814863 14.500000000000002 0.1200281616832747
decision_type=2 2 2 2 2 2 2 2 2 2 2 2 2 2 2 2 2 2 2 2 2 2 2 2 2 2 2 2 2 2
left_child=2 4 12 17 6 28 7 8 23 19 15 20 -1 -12 -8 -9 26 18 -3 -7 -10 -14 -4 -2 25 27 -5 -16 29 -6
right_child=1 3 22 16 5 9 14 10 11 -11 13 -13 21 -15 24 -17 -18 -19 -20 -21 -22 -23 -24 -25 -26 -27 -28 -29 -30 -31
leaf_value=-0.008463802357478966 0.0036014451047639419 0.0061821380167296439 -0.010233514959274444 0.0046605723198912567 -0.0013585640126109674 0.011500242314277551 0.012997611986209396 -0.0059936395890655969 0.0065884150371513482 0.016396641607085864 0.019038790529188904 -0.015282046844561895 0.0030327491528753725 -0.0062081765529163726 0.014195003384767577 0.008419605846434957 -0.0016849233217888478 -0.007790599646257986 -0.0040986293811102123 -0.0062526397701862056 0.020619225100829051 -0.0038382427288224073 -0.0013605473296982903 -0.0033011472736627374 -0.002142359757864917 -0.0085616795967022579 -0.002772702021920002 0.0025157779455184937 0.01184461405442196 0.012118620684272365
leaf_count=278 1418 165 6622 1438 217 39 699 84 9026 36 23 30 448 358 215 239 573 776 853 556 52 393 126 236 108 36 193 91 159 95
internal_value=0 0.0823496 -0.179078 -0.0166097 0.111193 0.00548231 0.120427 0.111866 0.119696 -0.077264 -0.00783565 0.13193 -0.0447309 -0.0936816 0.205859 0.0934254 0.0471988 -0.0950009 -0.0486459 -0.10178 0.133376 -0.00356142 -0.201357 0.0523311 0.121834 0.173839 0.0756195 0.214435 0.116338 0.0549013
internal_count=25582 17715 7867 3998 13717 1102 12615 11466 10762 631 704 9108 1119 381 1149 323 2204 1794 1018 595 9078 841 6748 1654 450 342 1631 306 471 312
shrinkage=0.05


Tree=12
num_leaves=31
num_cat=0
split_feature=31 17 16 31 7 6 31 26 14 31 23 0 16 14 3 31 16 15 16 6 18 23 31 14 26 0 22 25 8 30
split_gain=336.021 45.6755 21.2505 18.4003 12.381 8.83333 7.38367 6.4017 5.73837 10.6021 10.7271 8.30967 6.91619 6.42146 5.85272 5.17821 5.0774 5.05554 4.91567 4.90866 4.62527 4.60334 3.95086 4.50897 3.74314 3.70017 3.85999 3.52099 3.51588 3.54413
threshold=0.28035087719298252 0.26497764743717084 0.85656655036082996 0.39696969696969703 12.500000000000002 20.500000000000004 0.37123169681309226 -0.010679499609850927 93.500000000000014 0.77913279132791347 0.17795837480336893 60.500000000000007 0.26210472603985435 84.500000000000014 21.500000000000004 0.18808962264150947 0.33434455249016776 3.5826115298263832 0.90799105264081603 13.500000000000002 12.454502510612661 0.14766846974534584 0.79655172413793118 96.500000000000014 -0.34759465249392657 47.500000000000007 0.29477994538221036 0.10314150879747207 45.500000000000007 0.49445668570584272
decision_type=2 2 2 2 2 2 2 2 2 2 2 2 2 2 2 2 2 2 2 2 2 2 2 2 2 2 2 2 2 2
left_child=2 4 15 18 6 7 28 -6 9 17 11 13 19 21 -10 -1 -16 -8 -3 -12 -5 27 -9 -24 -7 -17 -27 -11 -2 -30
right_child=1 3 -4 20 5 24 8 22 14 10 12 -13 -14 -15 16 25 -18 -19 -20 -21 -22 -23 23 -25 -26 26 -28 -29 29 -31
leaf_value=-0.0080406123222850207 -0.0036247018395977864 -0.0013473261786639535 -0.0095644451420540001 0.0035864951792257066 -0.0092366752925475953 -0.0067512991113795181 0.0065914819172803564 0.015505762567574327 0.012687887987427555 -0.0085099499484505327 -0.0089799628401987068 -0.0044316348433494565 0.001933377421459491 0.011997529418225503 -0.0032798618078231814 0.0043077047089202297 0.018926964835687121 -0.014319340422235685 -0.0066051238525745492 0.010053429674161108 -0.0016006772690834591 0.014827436102288111 -0.0050463658974582992 0.018500162195414307 0.011083028206358786 0.0024624741016739636 -0.0061185485874273764 0.012836800081034503 0.0025185181632132259 0.010505393223884779
leaf_count=278 204 758 6748 1719 304 36 8778 44 579 99 312 140 599 471 117 298 33 29 1075 38 573 42 133 24 161 221 322 24 1267 156
internal_value=0 0.0782321 -0.170124 -0.0139335 0.106207 -0.0231207 0.113252 -0.0931825 0.12235 0.116411 0.0447204 0.131927 -0.0265885 0.180478 0.208152 -0.0424944 0.0321128 0.130453 -0.0886174 -0.13827 0.045794 0.0107091 0.0452827 -0.0289379 0.156479 -0.00338335 -0.0525218 -0.0868946 0.0502811 0.067882
internal_count=25582 17715 7867 4125 13590 702 12888 505 11261 10532 1725 776 949 636 729 1119 150 8807 1833 350 2292 165 201 157 197 841 543 123 1627 1423
shrinkage=0.05


Tree=13
num_leaves=31
num_cat=0
split_feature=31 17 16 31 7 31 31 8 8 14 31 23 13 1 16 13 4 22 6 15 7 6 28 25 23 10 2 15 10 1
split_gain=303.259 41.2221 19.2594 16.6063 11.1739 7.99483 6.66376 5.90375 5.38146 5.17888 9.56843 9.68118 9.63505 6.47774 6.24186 5.41485 4.82164 4.63367 5.11347 4.56263 4.56069 4.43006 4.32538 4.22766 4.18597 3.62277 3.33033 3.24233 2.96507 2.83334
threshold=0.28035087719298252 0.26497764743717084 0.80024647835932516 0.39696969696969703 12.500000000000002 0.83935483870967753 0.37123169681309226 98.500000000000014 55.500000000000007 93.500000000000014 0.77913279132791347 0.17795837480336893 91.500000000000014 65.500000000000014 0.26210472603985435 98.500000000000014 21.500000000000004 0.39190268837927961 17.500000000000004 3.5826115298263832 13.500000000000002 13.500000000000002 -0.60152998953428805 -0.069319115171321291 0.51175496425155031 51.500000000000007 1.0000000180025095e-35 2.3634001403833866 98.500000000000014 21.500000000000004
decision_type=2 2 2 2 2 2 2 2 2 2 2 2 2 2 2 2 2 2 2 2 2 2 2 2 2 2 2 2 2 2
left_child=2 4 -1 17 6 20 25 -7 -4 10 19 12 -12 -14 21 16 -11 18 22 28 -6 -13 -3 -22 -5 -2 -18 -10 29 -8
right_child=1 3 8 24 5 7 9 -9 27 15 11 14 13 -15 -16 -17 26 -19 -20 -21 23 -23 -24 -25 -26 -27 -28 -29 -30 -31
leaf_value=-0.00072799416165798912 -0.0029726105967931675 0.014332255069166423 -0.0092964469191868515 0.0032909100524655052 -0.0061149405936400097 -0.0070410997872906072 -0.0016011507096497909 0.017131095572754187 0.0042737001226734869 0.0085683791965678116 -0.0080552274105595619 -0.0085309648838562853 0.010407246677526114 -0.0037420194199744693 0.0018367086184243727 0.013359605645701898 -0.013578057610521131 -0.0071433114752019805 -0.0087052510435885796 -0.013603373488475538 -0.0022656896319545685 0.0095507582159418819 -0.001130868156280969 0.013258998019573016 -0.0019171723280322042 0.003426717314664179 0.0076433547098061138 -0.0058940820140914408 0.018922905656306641 0.0062992580403608729
leaf_count=800 264 48 6561 1801 66 392 115 27 97 207 102 312 580 94 599 442 51 776 227 29 61 38 782 156 491 1363 29 409 46 8617
internal_value=0 0.0743205 -0.161618 -0.0132368 0.100897 -0.0219647 0.107589 -0.109669 -0.178266 0.116232 0.11059 0.0424844 0.12533 0.168678 -0.0252591 0.197744 0.0907896 -0.0841865 -0.0411066 0.12393 0.107888 -0.131356 -0.0047323 0.177898 0.0435043 0.047767 -0.117706 -0.0788984 0.125238 0.123904
internal_count=25582 17715 7867 4125 13590 702 12888 419 7067 11261 10532 1725 776 674 949 729 287 1833 1057 8807 283 350 830 217 2292 1627 80 506 8778 8732
shrinkage=0.05


Tree=14
num_leaves=31
num_cat=0
split_feature=31 15 16 31 7 18 6 31 7 26 14 31 17 0 13 3 24 16 22 6 13 16 3 31 13 31 13 3 15 30
split_gain=273.691 37.753 17.8319 15.0048 9.23542 10.152 7.53513 6.666 5.94027 5.62054 4.8401 10.0943 8.2034 9.26099 7.42731 6.68243 5.37881 5.00333 4.64257 4.46683 4.38235 3.91313 3.46169 3.36258 3.34285 3.32271 4.82295 3.29734 4.54049 3.27422
threshold=0.28035087719298252 2.4160909640462624 0.92379348025813601 0.47213622291021679 12.500000000000002 10.141344993110581 20.500000000000004 0.20761494252873566 2.5000000000000004 -0.010679499609850927 92.500000000000014 0.77913279132791347 0.099453155996247947 60.500000000000007 92.500000000000014 21.500000000000004 -0.14539489112832099 0.42942508603557822 0.39190268837927961 22.500000000000004 66.500000000000014 0.33434455249016776 17.500000000000004 0.36515151515151517 69.500000000000014 0.79655172413793118 97.500000000000014 22.500000000000004 3.9309628179466731 -1.0000000180025095e-35
decision_type=2 2 2 2 2 2 2 2 2 2 2 2 2 2 2 2 2 2 2 2 2 2 2 2 2 2 2 2 2 2
left_child=2 4 7 18 5 10 9 -1 -9 -6 11 23 13 14 -13 -12 -15 29 19 -3 22 -17 -7 -2 -10 -11 -27 28 -5 -14
right_child=1 3 -4 27 6 20 -8 8 24 25 15 12 17 16 -16 21 -18 -19 -20 -21 -22 -23 -24 -25 -26 26 -28 -29 -30 -31
leaf_value=-0.0070690033252355094 0.0033105893112677373 -0.00098598284407765287 -0.0089435636567031171 0.0039925259221282473 -0.0085614980688612716 0.0062585062498138073 0.0072152906776073583 0.0033428887020290638 -0.0060363355137052991 0.014358249780806629 0.011136215097606601 -0.0018496916076253514 0.0023583537569412819 0.014272639434784651 0.0093282581730322403 -0.0033428472811228606 -0.007805739235132933 0.0020131861106452778 -0.00664598374023582 -0.010491779990439869 0.0030836674038189119 0.013818539644396582 -0.0037314410669257846 0.0060919646415102877 0.0036981354886238731 -0.0072671264550595921 0.011445642598703796 0.012351689079533454 -0.018190288916230202 -0.010238224068284035
leaf_count=679 1251 1262 6131 594 304 105 199 486 462 44 713 197 65 32 605 146 200 234 825 137 1443 43 498 8272 109 106 51 115 24 250
internal_value=0 0.0706045 -0.153537 -0.0325274 0.0912686 0.0968675 -0.0205022 -0.0640657 -0.0144001 -0.0854463 0.107962 0.10224 0.0282957 0.0807502 0.131651 0.178409 -0.0952089 -0.0704983 -0.0734228 -0.0383372 0.0317558 0.0112319 -0.039838 0.114532 -0.0835618 0.0442961 -0.0237691 0.0915536 0.0626211 -0.152779
internal_count=25582 17715 7867 2957 14758 14054 704 1736 1057 505 12008 11106 1583 1034 802 902 232 549 2224 1399 2046 189 603 9523 571 201 157 733 618 315
shrinkage=0.05


Tree=15
num_leaves=31
num_cat=0
split_feature=31 15 31 16 7 20 16 31 15 13 31 8 5 8 8 15 14 10 1 18 28 8 0 16 14 17 29 13 17 13
split_gain=237.855 26.2348 23.5036 10.6926 8.93968 9.20949 9.30087 7.49982 8.43021 7.22527 6.84378 6.72585 6.21461 5.04434 4.90776 4.32546 4.06978 3.93097 3.64441 3.94106 3.96679 3.6262 3.40282 8.34624 7.41797 5.37045 4.9044 4.29766 3.56515 5.74563
threshold=0.29679679679679688 2.1578157226742509 0.37123169681309226 0.87244945110698124 11.500000000000002 114.3098533735136 0.41846900009350879 0.46332737030411458 2.2349545608860262 99.500000000000014 0.85994397759103658 51.500000000000007 13.500000000000002 44.500000000000007 67.500000000000014 2.6853200232989241 45.500000000000007 76.500000000000014 98.500000000000014 12.233530967441768 -0.70589448134290023 69.500000000000014 60.500000000000007 0.2227010331456275 80.500000000000014 0.031492196701791049 0.19014861820061882 96.500000000000014 0.089217567453756266 93.500000000000014
decision_type=2 2 2 2 2 2 2 2 2 2 2 2 2 2 2 2 2 2 2 2 2 2 2 2 2 2 2 2 2 2
left_child=1 13 3 17 5 22 14 8 -8 10 -6 -3 -9 -1 -7 16 -13 -2 19 20 -5 -19 24 27 25 -4 28 -24 -26 -30
right_child=2 11 4 18 9 6 7 12 -10 -11 -12 15 -14 -15 -16 -17 -18 21 -20 -21 -22 -23 23 -25 26 -27 -28 -29 29 -31
leaf_value=-0.0062006800359970821 0.001183104813320651 -0.0084893436152252214 -0.00066352083082616775 0.0191572359452645 0.0018551442513961604 0.0063444821513848866 0.0044120022075426792 0.0046970715436155941 -0.0013632973163358627 0.0097574642575378959 -0.0077038493978772264 0.021436900533735755 0.010476386320885038 0.002263473366989809 -0.0023666410539670956 -0.0069211430323597853 -0.0016137506614128747 0.020075453113425863 -0.010094111252434645 -0.0077137009563183704 -0.0015915929777043859 0.0010517048770966738 -0.0096942389810007398 0.0061254866108173085 0.0097705337136278492 0.0057652421237960943 -0.0034173274255660645 0.0043280619207550497 0.0098144464509587886 -0.0027464840022273038
leaf_count=222 1344 6320 411 24 404 197 1513 3964 1085 141 349 20 527 850 902 654 450 55 237 309 573 46 153 714 2028 1550 83 85 213 159
internal_value=0 -0.136048 0.0685682 -0.0192073 0.0842584 0.0906332 0.0694958 0.0827661 0.0400014 -0.0126032 -0.0515051 -0.157111 0.107505 0.0102127 -0.0161028 -0.0858341 -0.0126574 0.0379602 -0.0914794 -0.0625992 -0.0151494 0.228223 0.122707 0.0684509 0.13433 0.0883571 0.170639 -0.0937255 0.178904 0.0889132
internal_count=25582 8516 17066 2588 14478 13584 8188 7089 2598 894 753 7444 4491 1072 1099 1124 470 1445 1143 906 597 101 5396 952 4444 1961 2483 238 2400 372
shrinkage=0.05


Tree=16
num_leaves=31
num_cat=0
split_feature=31 15 15 31 7 18 20 31 13 31 16 3 3 3 14 31 23 31 16 6 7 28 29 16 16 5 5 20 16 0
split_gain=214.664 23.6769 21.4041 13.5946 8.60592 6.79865 6.77369 9.99124 6.56824 6.073 5.70198 4.48092 4.41275 4.33415 6.88625 4.3088 4.13201 3.88354 4.50039 3.85148 3.63645 3.91552 3.42663 3.35282 3.32739 3.30612 3.23361 3.20434 3.14762 6.0637
threshold=0.29679679679679688 2.1578157226742509 2.3109394791382862 0.50490196078431382 11.500000000000002 12.57026063036392 118.25402152591955 0.79655172413793118 99.500000000000014 0.85994397759103658 0.9693532330224679 22.500000000000004 21.500000000000004 18.500000000000004 79.500000000000014 0.2168037602820212 0.20760850212685159 0.37123169681309226 0.42243070307834246 20.500000000000004 2.5000000000000004 -0.34076553043835828 -0.17087464686102835 0.52384489822866087 0.7961347703903755 4.5000000000000009 20.500000000000004 155.64943842435522 0.2227010331456275 60.500000000000007
decision_type=2 2 2 2 2 2 2 2 2 2 2 2 2 2 2 2 2 2 2 2 2 2 2 2 2 2 2 2 2 2
left_child=1 12 4 5 6 19 13 17 9 26 15 24 27 14 16 -3 -2 -8 -19 -4 21 -17 -16 -9 -5 -20 -6 -1 29 -15
right_child=2 10 3 11 8 -7 7 23 -10 -11 -12 -13 -14 28 22 20 -18 18 25 -21 -22 -23 -24 -25 -26 -27 -28 -29 -30 -31
leaf_value=0.004209133396017987 0.0013566809328180256 -0.0075183439293577091 8.7501161253821847e-05 -0.0037996536381890845 -0.0014522913208714239 -0.0065974806785205654 0.0011227924672597583 -0.0075521511188448593 0.0092695910774224198 -0.0073186567976515756 -0.0081451180507351173 0.01588002975049772 -0.0043042192953717277 0.0043071828100640901 0.00086481440170057893 0.016766565038663587 0.006869512037398981 0.00077343675161274412 -0.0067859991627224423 -0.00781831873591835 -0.0046685384693326516 2.6512385930045181e-05 0.0097753803462870999 0.0029119332956376478 0.0059256697412927144 0.0051279737815558175 0.0080725725992281637 -0.0042381603864655977 0.0052687949990667012 -0.0053870740136853215
leaf_count=602 623 691 1742 107 270 631 1108 269 141 349 5988 95 332 590 116 41 748 743 59 169 488 236 1544 107 494 4461 133 138 2345 222
internal_value=0 -0.129245 0.0651398 -0.00804545 0.0822771 -0.0419503 0.0888319 0.0669165 -0.0126689 -0.0498053 -0.149255 0.115785 0.00970208 0.112727 0.139737 -0.0931282 0.0872882 0.0762651 0.0875933 -0.0122331 -0.0414264 0.0500856 0.183054 -0.0914868 0.0838841 0.0994492 0.033823 0.0526765 0.0867953 0.0331357
internal_count=25582 8516 17066 3238 13828 2542 12935 6747 893 752 7444 696 1072 6188 3031 1456 1371 6371 5263 1911 765 277 1660 376 601 4520 403 740 3157 812
shrinkage=0.05


Tree=17
num_leaves=31
num_cat=0
split_feature=8 16 15 7 20 13 7 10 14 8 16 0 13 17 3 5 26 5 10 29 5 13 15 13 1 16 24 1 26 12
split_gain=192.224 30.4322 24.0692 7.28598 7.45509 5.73816 5.7212 5.03667 4.91758 4.89637 4.88472 7.25147 7.90367 5.02689 4.61631 4.52432 4.42245 4.41052 4.39264 4.35201 5.34164 4.30149 4.29487 4.05432 3.56154 3.41095 3.3832 3.3474 2.83175 2.82805
threshold=51.500000000000007 0.80024647835932516 2.696386140849039 11.500000000000002 163.08877633659102 99.500000000000014 7.5000000000000009 72.500000000000014 92.500000000000014 65.500000000000014 0.20994102116804894 60.500000000000007 93.500000000000014 0.077710650583370025 18.500000000000004 20.500000000000004 0.067225705974033559 4.5000000000000009 59.500000000000007 0.12388273252316916 13.500000000000002 82.500000000000014 2.2149286852578025 72.500000000000014 31.500000000000004 0.96511132858513482 -0.087006696163597894 25.500000000000004 0.50685547082633231 68.500000000000014
decision_type=2 2 2 2 2 2 2 2 2 2 2 2 2 2 2 2 2 2 2 2 2 2 2 2 2 2 2 2 2 2
left_child=1 21 3 4 8 15 9 25 10 24 11 12 27 -14 -10 16 -5 -12 22 -20 28 -1 29 -6 -4 -3 -17 -2 -21 -19
right_child=2 7 6 5 23 -7 -8 -9 14 -11 17 -13 13 -15 -16 26 -18 18 19 20 -22 -23 -24 -25 -26 -27 -28 -29 -30 -31
leaf_value=-4.1098473167942475e-05 0.0088441585793214688 -0.0052409193176147228 0.002290686032576868 -0.0070776207920383001 -0.0043802498037095574 0.0087026314437389368 0.019563972487531861 0.0052008566665060728 0.011926584469912641 0.0017443774001938955 -0.002896355450153351 -0.0082637204611230464 0.010063662717030162 -0.0032694370694020219 0.0044951641762798486 -0.00804908998310566 0.0028358379123257661 0.0021458609156342905 0.0055574147105338411 0.0019713723707386506 0.0085365824268727342 0.0082217000789292487 -0.0015664638750828232 0.003666940948058819 -0.0054730539717432539 -0.0078849147111863197 0.0085069292507789756 -0.00067940608221717807 -0.010248117027234058 0.0076676377978570831
leaf_count=1094 102 1540 171 425 391 140 29 81 398 434 200 168 420 85 440 40 153 691 7363 1463 337 184 520 261 1085 5867 135 967 49 349
internal_value=0 -0.11965 0.0629951 0.0757613 0.0812696 -0.0118536 -0.0491232 -0.143992 0.0862947 -0.0566804 0.0814042 0.0322118 0.0532904 0.15639 0.160493 -0.0464179 -0.0890694 0.0892144 0.0919463 0.100256 0.0568825 0.0229708 0.0428748 -0.0231781 -0.088321 -0.146704 0.0944539 0.00458594 0.0315074 0.0799768
internal_count=25582 8766 16816 15097 14204 893 1719 7488 13552 1690 12714 1742 1574 505 838 753 578 10972 10772 9212 1849 1278 1560 652 1256 7407 175 1069 1512 1040
shrinkage=0.05


Tree=18
num_leaves=31
num_cat=0
split_feature=31 15 23 10 7 20 16 31 10 14 13 31 15 31 17 3 24 4 16 31 14 6 31 4 7 14 31 30 27 27
split_gain=176.604 31.0583 9.50724 7.15287 6.90508 6.03184 7.20238 6.32686 5.7017 5.63276 5.3401 5.29926 5.06991 4.86607 4.17316 4.16019 3.61884 3.48093 3.33689 3.2974 3.7407 3.2898 3.24507 3.19131 3.09118 3.05145 3.39981 3.1364 3.0152 4.38877
threshold=0.34384236453201983 2.3220440699414477 0.49526052855381636 53.500000000000007 11.500000000000002 114.3098533735136 0.41846900009350879 0.46332737030411458 51.500000000000007 61.500000000000007 99.500000000000014 0.85994397759103658 2.2349545608860262 0.53950103950103967 0.28205665093652427 19.500000000000004 -0.11833025723260905 23.500000000000004 0.64672132296641482 0.2168037602820212 68.500000000000014 13.500000000000002 0.18808962264150947 20.500000000000004 6.5000000000000009 94.500000000000014 0.79655172413793118 -1.0000000180025095e-35 0.095065316252755272 -0.30765357149037847
decision_type=2 2 2 2 2 2 2 2 2 2 2 2 2 2 2 2 2 2 2 2 2 2 2 2 2 2 2 2 2 2
left_child=1 3 4 18 5 28 13 12 -3 -4 11 -6 16 -7 19 -9 17 -8 -1 -10 21 -21 -5 -17 -11 26 -15 -28 29 -2
right_child=2 8 9 22 10 6 7 15 14 24 -12 -13 -14 25 -16 23 -18 -19 -20 20 -22 -23 -24 -25 -26 -27 27 -29 -30 -31
leaf_value=0.0033397768152086701 0.0028090069257352911 -0.0075116380551434117 -0.005260476405605858 -0.0055009011447429666 0.0016609452499283684 0.0057266334906734273 0.00082465968026968709 0.0035280257053689531 -0.0057751945702726633 0.0010998515565605724 0.0083711504196444294 -0.0067457038813129207 -0.00074075503371776334 -0.00093341382290316121 -0.0060209692380285744 0.00431674423847729 0.0045420898877246334 -0.014092551074598149 -0.004945455560396458 0.0052137984703175535 -0.01094497720063743 -0.0043860268235206609 0.0029333873798671273 0.0085177784381319562 0.014414813190698626 0.014420504237596804 0.0041869769262713056 -0.010738383936359711 0.0032164409145778307 0.0067774845155837695
leaf_count=146 887 5374 486 125 405 232 261 2291 299 340 141 349 1114 586 1689 791 1517 46 725 312 59 125 1301 1055 50 26 43 194 1366 3247
internal_value=0 -0.102019 0.0678 0.000268842 0.0738911 0.0794679 0.0622093 0.0738251 -0.131919 -0.0333767 -0.0112008 -0.0446039 0.0383399 -0.0138145 -0.0922987 0.0990259 0.070804 -0.0282098 -0.0711331 -0.0325556 0.0174475 0.0493571 0.0438811 0.134353 0.056138 -0.048887 -0.0595428 -0.160608 0.105061 0.11852
internal_count=25582 10155 15427 2297 14551 13656 8156 7075 7858 876 895 754 2938 1081 2484 4137 1824 307 871 795 496 437 1426 1846 390 849 823 237 5500 4134
shrinkage=0.05


Tree=19
num_leaves=31
num_cat=0
split_feature=8 16 15 7 20 7 6 0 14 14 10 3 16 0 13 22 10 1 14 26 15 13 8 10 8 22 5 0 13 15
split_gain=157.755 24.9952 19.8072 5.97284 6.17115 4.94406 4.79411 4.64344 4.50217 4.36933 4.32714 4.17959 4.16086 6.51444 6.99102 4.4938 4.37307 4.21713 4.08517 3.85278 3.74643 3.74198 3.65886 3.58549 4.07803 4.76671 4.07422 3.57496 3.54738 3.42988
threshold=51.500000000000007 0.80024647835932516 2.696386140849039 11.500000000000002 163.08877633659102 7.5000000000000009 20.500000000000004 33.500000000000007 45.500000000000007 92.500000000000014 72.500000000000014 18.500000000000004 0.20994102116804894 60.500000000000007 93.500000000000014 0.18186775058529478 59.500000000000007 64.500000000000014 79.500000000000014 0.389472825210601 2.2247846376132991 75.500000000000014 86.500000000000014 93.500000000000014 77.500000000000014 0.18681030279629093 4.5000000000000009 90.500000000000014 74.500000000000014 1.1521883276039411
decision_type=2 2 2 2 2 2 2 2 2 2 2 2 2 2 2 2 2 2 2 2 2 2 2 2 2 2 2 2 2 2
left_child=1 21 3 4 8 7 18 -4 -2 12 -3 -11 13 14 -10 -16 20 23 -5 27 -14 -1 -19 26 -25 -26 -18 -20 -6 -28
right_child=2 10 5 6 28 -7 -8 -9 9 11 -12 -13 16 -15 15 -17 17 22 19 -21 -22 -23 -24 24 25 -27 29 -29 -30 -31
leaf_value=-0.00064802189095105906 0.020063473665437037 -0.006648432190008326 0.0029573538132662914 0.019801028892397883 -0.0037196652799151666 0.018237949188413292 0.0063972100768333838 -0.0038230734198184918 6.4897939758131121e-05 0.011068348391870757 0.0049711220794253878 0.0039971824566071689 0.0032132130133813008 -0.0080013003555082143 0.0092811596132902959 -0.0035080978147140362 -0.0034253692746847525 0.0072495673180990594 -0.00045442143397301621 0.01084349511758141 -0.0020524753077376273 0.0053717650950453081 -0.0029054853114041878 0.0088244029426876505 0.0026751164780106657 -0.010865415473475712 0.0063078854967338538 -0.0079768007080401153 0.0040631521224707102 0.0037187992373376661
leaf_count=919 43 7407 309 20 430 29 195 1381 1068 398 81 440 1059 168 423 82 174 1573 322 46 496 359 94 79 129 131 1664 310 222 5531
internal_value=0 -0.108395 0.0570669 0.0686478 0.0736351 -0.0446416 -0.0106798 -0.0516668 0.0782071 0.0771787 -0.130455 0.147111 0.0725537 0.0271494 0.0471402 0.14409 0.079786 0.0879323 -0.0494072 -0.0625466 0.0306722 0.0208596 0.133539 0.0780691 -0.0224868 -0.0829446 0.082695 -0.0828839 -0.0213938 0.0863516
internal_count=25582 8766 16816 15097 14204 1719 893 1690 13552 13509 7488 838 12671 1741 1573 505 10930 9375 698 678 1555 1278 1667 7708 339 260 7369 632 652 7195
shrinkage=0.05


end of trees

feature importances:
common_ratio=123
wmd=45
norm_wmd=45
fuzz_token_set_ratio=43
fuzz_partial_ratio=36
common_words=33
len_char_q1=27
fuzz_token_sort_ratio=27
fuzz_qratio=22
minkowski_distance=20
cosine_distance=19
len_q1=18
canberra_distance=16
len_q2=13
len_word_q2=13
cityblock_distance=13
kur_q1vec=11
len_word_q1=10
braycurtis_distance=9
skew_q1vec=9
len_char_q_ratio_ln=8
fuzz_partial_token_sort_ratio=7
len_q_ratio_ln=7
len_word_q_ratio_ln=6
kur_q2vec=5
diff_len=4
len_char_q2=4
fuzz_WRatio=4
skew_q2vec=3

parameters:
[boosting: gbdt]
[objective: regression]
[metric: l2,l1]
[tree_learner: serial]
[device_type: cpu]
[data: ]
[valid: ]
[num_iterations: 100]
[learning_rate: 0.05]
[num_leaves: 31]
[num_threads: 0]
[max_depth: -1]
[min_data_in_leaf: 20]
[min_sum_hessian_in_leaf: 0.001]
[bagging_fraction: 0.8]
[bagging_freq: 5]
[bagging_seed: 3]
[feature_fraction: 0.9]
[feature_fraction_seed: 2]
[early_stopping_round: 0]
[max_delta_step: 0]
[lambda_l1: 0]
[lambda_l2: 0]
[min_gain_to_split: 0]
[drop_rate: 0.1]
[max_drop: 50]
[skip_drop: 0.5]
[xgboost_dart_mode: 0]
[uniform_drop: 0]
[drop_seed: 4]
[top_rate: 0.2]
[other_rate: 0.1]
[min_data_per_group: 100]
[max_cat_threshold: 32]
[cat_l2: 10]
[cat_smooth: 10]
[max_cat_to_onehot: 4]
[top_k: 20]
[monotone_constraints: ]
[feature_contri: ]
[forcedsplits_filename: ]
[refit_decay_rate: 0.9]
[verbosity: 0]
[max_bin: 255]
[min_data_in_bin: 3]
[bin_construct_sample_cnt: 200000]
[histogram_pool_size: -1]
[data_random_seed: 1]
[output_model: LightGBM_model.txt]
[snapshot_freq: -1]
[input_model: ]
[output_result: LightGBM_predict_result.txt]
[initscore_filename: ]
[valid_data_initscores: ]
[pre_partition: 0]
[enable_bundle: 1]
[max_conflict_rate: 0]
[is_enable_sparse: 1]
[sparse_threshold: 0.8]
[use_missing: 1]
[zero_as_missing: 0]
[two_round: 0]
[save_binary: 0]
[enable_load_from_binary_file: 1]
[header: 0]
[label_column: ]
[weight_column: ]
[group_column: ]
[ignore_column: ]
[categorical_feature: ]
[predict_raw_score: 0]
[predict_leaf_index: 0]
[predict_contrib: 0]
[num_iteration_predict: -1]
[pred_early_stop: 0]
[pred_early_stop_freq: 10]
[pred_early_stop_margin: 10]
[convert_model_language: ]
[convert_model: gbdt_prediction.cpp]
[num_class: 1]
[is_unbalance: 0]
[scale_pos_weight: 1]
[sigmoid: 1]
[boost_from_average: 1]
[reg_sqrt: 0]
[alpha: 0.9]
[fair_c: 1]
[poisson_max_delta_step: 0.7]
[tweedie_variance_power: 1.5]
[max_position: 20]
[label_gain: ]
[metric_freq: 1]
[is_provide_training_metric: 0]
[eval_at: ]
[num_machines: 1]
[local_listen_port: 12400]
[time_out: 120]
[machine_list_filename: ]
[machines: ]
[gpu_platform_id: -1]
[gpu_device_id: -1]
[gpu_use_dp: 0]

end of parameters

pandas_categorical:[]
